net
{
     node_size = (55 55);
     name = "Credit_net";
     tree = "(Income,Payment History,Age,Assets,Ratio of Debts To Income,Reliability,Credit Worthiness,Future Income)";
     UnBBayes_Color_Probabilistic_Description = "-256";
     UnBBayes_Color_Probabilistic_Explanation = "-16711936";
}

node Income
{
     label = "Income";
     position = (386 205);
     states = ("High" "Medium" "Low");
}

node PaymentHistory
{
     label = "Payment History";
     position = (317 377);
     states = ("Excellent" "Acceptable" "Unacceptable");
}

node Age
{
     label = "Age";
     position = (827 389);
     states = ("Between16and21" "Between22and64" "Over65");
}

node Assets
{
     label = "Assets";
     position = (20 294);
     states = ("High" "Medium" "Low");
}

node DebtIncomeRatio
{
     label = "Ratio of Debts To Income";
     position = (488 279);
     states = ("Low" "High");
}

node Reliability
{
     label = "Reliability";
     position = (603 497);
     states = ("Reliable" "Unreliable");
}

node CreditWorthiness
{
     label = "Credit Worthiness";
     position = (691 118);
     states = ("Positive" "Negative");
}

node FutureIncome
{
     label = "Future Income";
     position = (80 60);
     states = ("Promising" "Not_promising");
}

potential (Income)
{
 data = ( 0.33333334 0.33333334 0.33333334 );
}

potential (PaymentHistory | DebtIncomeRatio Age)
{
 data = ((( 0.33333334 0.33333334 0.33333334 )
( 0.33333334 0.33333334 0.33333334 )
( 0.33333334 0.33333334 0.33333334 ))
(( 0.33333334 0.33333334 0.33333334 )
( 0.33333334 0.33333334 0.33333334 )
( 0.33333334 0.33333334 0.33333334 )));
}

potential (Age)
{
 data = ( 0.33333334 0.33333334 0.33333334 );
}

potential (Assets | Income)
{
 data = (( 0.33333334 0.33333334 0.33333334 )
( 0.33333334 0.33333334 0.33333334 )
( 0.33333334 0.33333334 0.33333334 ));
}

potential (DebtIncomeRatio)
{
 data = ( 0.5 0.5 );
}

potential (Reliability | Age PaymentHistory)
{
 data = ((( 0.5 0.5 )
( 0.5 0.5 )
( 0.5 0.5 ))
(( 0.5 0.5 )
( 0.5 0.5 )
( 0.5 0.5 ))
(( 0.5 0.5 )
( 0.5 0.5 )
( 0.5 0.5 )));
}

potential (CreditWorthiness | DebtIncomeRatio FutureIncome)
{
 data = ((( 0.5 0.5 )
( 0.5 0.5 ))
(( 0.5 0.5 )
( 0.5 0.5 )));
}

potential (FutureIncome | Income Assets)
{
 data = ((( 0.5 0.5 )
( 0.5 0.5 )
( 0.5 0.5 ))
(( 0.5 0.5 )
( 0.5 0.5 )
( 0.5 0.5 ))
(( 0.5 0.5 )
( 0.5 0.5 )
( 0.5 0.5 )));
}

